<?xml version="1.0"?>
<opencv_storage>
<my_svm type_id="opencv-ml-svm">
  <svm_type>C_SVC</svm_type>
  <kernel><type>LINEAR</type></kernel>
  <C>1.</C>
  <term_criteria><epsilon>2.2204460492503131e-016</epsilon>
    <iterations>100</iterations></term_criteria>
  <var_all>1296</var_all>
  <var_count>1296</var_count>
  <class_count>2</class_count>
  <class_labels type_id="opencv-matrix">
    <rows>1</rows>
    <cols>2</cols>
    <dt>i</dt>
    <data>
      -1 1</data></class_labels>
  <sv_total>1</sv_total>
  <support_vectors>
    <_>
      1.04234189e-001 1.52355075e-001 1.82429682e-002 -1.22124560e-001
      2.81686708e-002 -2.58929580e-001 -1.39941916e-001 2.33340263e-001
      -3.80960992e-003 1.41008109e-001 6.64963648e-002 -3.10672671e-002
      -6.52069151e-002 -7.12834597e-002 -2.05495477e-001
      -1.15097901e-002 2.43389025e-001 -5.43814562e-002 -1.01594985e-001
      -4.28076237e-002 3.86424288e-002 1.19514316e-001 -1.81934182e-002
      3.05715770e-001 1.95790846e-002 -2.54828274e-001 -5.69396615e-002
      1.55753404e-001 -1.52199253e-001 -1.83396451e-002 9.32056233e-002
      -7.39585087e-002 -6.38994798e-002 1.01485908e-001 -5.11272140e-002
      2.83872653e-002 -8.01356509e-002 1.20095005e-002 5.18915765e-002
      2.30273255e-003 -1.95592511e-002 3.53794582e-002 -6.56288788e-002
      -4.32539266e-003 7.47397915e-002 4.14686687e-002 -1.62655145e-001
      1.54000157e-002 9.35322270e-002 -1.95273086e-001 1.94745988e-001
      -4.65093814e-002 1.00151986e-001 -3.08836456e-002 -1.08020581e-001
      -8.07940681e-003 -6.35648891e-002 7.23583996e-002 -7.33259544e-002
      6.72180578e-002 4.82276902e-002 8.44407752e-002 -1.40034100e-002
      -1.65763706e-001 4.45957258e-002 1.05573468e-001 1.77600741e-001
      -4.48666178e-002 6.59883395e-003 4.85911928e-002 -3.11991982e-002
      -1.43384725e-001 6.44245148e-002 -8.28983821e-003 3.11658122e-002
      1.94640718e-002 -1.84044018e-001 -1.86538026e-001 5.02688391e-003
      1.97763681e-001 7.74424821e-002 -7.82448575e-002 -6.13718107e-002
      4.61520329e-002 5.31838089e-002 -3.70025262e-002 -3.82570624e-002
      5.36728948e-002 1.82767734e-001 -1.18598416e-001 -8.16852078e-002
      -5.80812693e-002 9.39553827e-002 -5.01824310e-003 1.05203353e-001
      -3.95756811e-002 5.93620278e-002 -2.96359826e-002 -3.90445441e-002
      7.79923946e-002 5.16845398e-002 -8.69498495e-003 -7.35845044e-002
      -1.54817641e-001 -2.12480545e-001 1.46548390e-001 1.17108293e-001
      6.55668974e-002 1.44896865e-001 3.23655829e-003 3.80313322e-002
      -7.95257017e-002 -3.64082530e-002 -9.84202549e-002
      -1.37816235e-001 -4.92314734e-002 2.24188387e-001 -6.59832405e-003
      -1.03362873e-001 3.22666997e-003 -6.67029060e-003 -1.26891032e-001
      5.46621010e-002 9.55825821e-002 8.28092336e-004 1.00051753e-001
      1.28610209e-001 -1.35440871e-001 1.31378740e-001 -1.39012903e-001
      -2.21567288e-001 2.91493237e-001 1.75740123e-001 -1.55109107e-001
      -7.07880482e-002 3.42527516e-002 -4.61714476e-001 1.06256679e-001
      5.92460744e-002 -1.92445472e-001 2.23121762e-001 2.81818032e-001
      -1.29573131e-002 -2.89517902e-002 -4.03423980e-002
      -3.56899947e-001 3.97512875e-003 7.52877668e-002 -1.84069991e-001
      3.38289350e-001 1.18987314e-001 -4.83016074e-002 9.52120572e-002
      -9.22397599e-002 -1.70947358e-001 1.15062140e-001 -1.49089038e-001
      4.92836758e-002 3.01364511e-001 4.16630134e-002 -1.03866756e-001
      4.70264722e-003 -7.61169642e-002 -7.79040977e-002 -2.54694019e-002
      -1.46755338e-001 -4.17771935e-002 2.42038548e-001 -3.29521112e-002
      1.34125367e-001 2.39380524e-002 8.22544005e-003 -2.33794257e-001
      1.09497949e-001 -2.70692825e-001 4.94524278e-002 1.63370594e-001
      -4.81075188e-003 7.08728507e-002 1.06742278e-001 -2.13337988e-002
      3.08332331e-002 3.76329832e-002 -1.37589604e-001 6.57000169e-002
      5.29852435e-002 -2.34221537e-002 1.13577142e-001 -1.26851618e-001
      -5.89256138e-002 -2.45076194e-002 5.55013418e-002 -8.61018449e-002
      3.22574601e-002 1.84536561e-001 -6.75812289e-002 -2.40204930e-002
      -1.69038828e-002 2.46475413e-002 1.50374454e-002 8.20946414e-003
      -1.54552549e-001 -9.43798125e-002 1.73981890e-001 7.82065764e-002
      -7.79986531e-002 2.84117684e-002 -3.69951315e-002 1.03495985e-001
      9.58299171e-003 -2.37292454e-001 7.25058243e-002 2.24632427e-001
      8.88652205e-002 2.56142337e-002 -2.55909443e-001 -2.96884570e-002
      -9.68366563e-002 -3.54458508e-003 -2.49172244e-002 1.62751198e-001
      -6.15002885e-002 -2.41552532e-001 9.56448261e-003 3.02074939e-001
      -7.09221214e-002 1.09414041e-001 3.18877585e-002 -2.42589235e-001
      -5.83756678e-002 -1.04941621e-001 1.77927576e-002 8.00994784e-002
      2.50201434e-001 1.86376989e-001 -4.58199903e-002 1.39037082e-002
      -1.19316079e-001 -1.36320934e-001 -9.90955085e-002
      -1.25523526e-002 2.18483791e-001 1.27959074e-002 -7.76681378e-002
      -2.45789468e-001 1.71987996e-001 -6.33449201e-003 -2.77207881e-001
      1.70123100e-001 1.34080738e-001 1.11192696e-001 1.72636099e-002
      -1.18014310e-002 -1.04372948e-001 3.62447463e-002 3.39978114e-002
      -2.50852585e-001 -9.02855843e-002 1.25205249e-001 2.39079699e-001
      3.04051619e-002 -4.63552959e-002 -1.53055061e-002 -2.54275985e-002
      -3.66279557e-002 -4.02124226e-001 4.21640687e-002 2.75823891e-001
      -1.86340869e-004 2.10436761e-001 -2.00828910e-002 -1.95122406e-001
      4.38416749e-002 6.67077117e-003 -1.75046265e-001 1.84494015e-002
      1.73569500e-001 5.47845587e-002 8.84600878e-002 -4.77312952e-002
      2.41320990e-002 4.34524417e-002 -9.57434922e-002 -2.74166375e-001
      3.60655077e-002 6.26960322e-002 9.17783976e-002 1.64491415e-001
      -4.44083959e-002 -1.53958825e-002 8.20585117e-002 -1.59803465e-001
      -2.26757780e-001 1.10686235e-001 7.13039935e-002 9.39641669e-002
      8.06287974e-002 -2.60357745e-002 -1.15786465e-002 -1.50568346e-002
      -4.37059850e-002 9.72157791e-002 -1.78585395e-001 -1.48648083e-001
      2.37334415e-001 9.54372883e-002 -2.33934205e-002 7.30787292e-002
      -4.62666340e-003 -7.43768364e-002 1.45114120e-002 -8.43599066e-002
      2.18964895e-004 6.94650486e-002 3.19168530e-002 -4.60435115e-002
      1.88511610e-002 1.17807963e-003 -1.30467355e-001 -5.01024872e-002
      -5.80251254e-002 -1.53929815e-001 2.10527852e-001 2.23636359e-001
      1.43061966e-001 -2.68605262e-001 1.84683744e-002 9.21653584e-002
      -7.05578923e-002 -2.15897080e-003 -2.96378639e-002
      -7.84362629e-002 2.08520785e-001 -1.74537137e-001 1.37876704e-001
      7.28283748e-002 -7.58009180e-002 1.32907912e-001 -1.06515534e-001
      -1.43657625e-001 1.78848188e-002 1.48725241e-001 -5.41674206e-003
      -1.53090745e-001 2.10717112e-001 -4.70509287e-003 3.80904377e-002
      -2.95247644e-001 2.59203929e-002 6.12462424e-002 1.35203272e-001
      1.58140481e-001 -1.02308333e-001 -6.39593080e-002 -1.32533431e-001
      -1.14996910e-001 -3.39676961e-002 -3.06529622e-003 1.16611473e-001
      1.85568839e-001 -1.16291240e-001 -9.73697826e-002 1.02440819e-001
      2.28473656e-002 1.13931000e-001 2.81073786e-002 -1.49885476e-001
      3.89316976e-002 6.21178150e-002 1.47279976e-002 4.01230752e-002
      7.17636421e-002 -7.49994069e-002 6.29000291e-002 -5.50924912e-002
      -7.18240663e-002 1.95944943e-002 -2.26403866e-003 1.23094648e-001
      1.07207470e-001 -1.25391230e-001 -5.35864308e-002 2.64059473e-002
      6.74831271e-002 1.87552776e-002 -9.28226784e-002 -6.29928708e-002
      1.17260806e-001 -3.48669197e-003 6.29027262e-002 -5.20600006e-002
      -2.19698191e-001 6.52937964e-002 6.38148235e-003 8.02005529e-002
      -5.66805117e-002 -2.89240312e-002 1.19557463e-001 1.61077857e-001
      -2.76316434e-001 -1.68464378e-001 -4.51742709e-002 1.92129552e-001
      6.32601827e-002 -1.99056603e-002 1.47387400e-001 9.89763141e-002
      -3.01507935e-002 -1.03067540e-001 -2.79900491e-001
      -1.06300354e-001 5.21375015e-002 8.50812793e-002 1.45790204e-001
      1.34231403e-001 1.28485069e-001 -1.31652996e-001 -1.55478707e-002
      -1.13050550e-001 -1.87861770e-001 8.45590979e-002 3.38507965e-002
      7.55109042e-002 3.99530120e-002 1.20654121e-001 -1.12403603e-002
      -4.78617474e-003 -1.05984136e-001 -3.04718148e-002 4.73165624e-002
      5.77340275e-002 -1.06387928e-001 5.46403639e-002 1.15800291e-001
      1.40548395e-002 -1.79747269e-001 3.61460410e-002 -7.62545392e-002
      -8.05593189e-003 -2.75703054e-002 8.43613446e-002 -1.36885047e-002
      -7.94192925e-002 3.19701359e-002 -7.05126449e-002 1.49131402e-001
      -7.17899250e-003 -2.06548959e-001 7.43257478e-002 1.29500151e-001
      -1.17386833e-001 3.00439686e-004 5.02991006e-002 8.20176601e-002
      6.45595416e-002 -1.34457629e-002 4.18938734e-002 -1.68565623e-002
      -8.23866203e-002 -9.47870538e-002 -1.95807088e-002
      -5.41765243e-002 -1.35704070e-001 7.74011165e-002 1.64196074e-001
      -7.02854944e-003 5.82507327e-002 1.27431909e-002 -2.12426499e-001
      -3.50562148e-002 -4.85949451e-003 -1.16376184e-001 1.58567190e-001
      1.01523496e-001 3.93665433e-002 2.20558330e-001 -1.51109636e-001
      -5.74370474e-003 5.72450459e-003 2.92567089e-002 -1.15524255e-001
      7.73559185e-003 6.91296309e-002 2.68192384e-002 -4.53613997e-002
      3.77876461e-002 4.55234312e-002 -4.86701131e-002 -5.01684919e-002
      2.93341689e-002 -5.97764133e-003 1.52864039e-001 7.43363202e-002
      -2.31060430e-001 3.96691039e-002 -2.25964218e-001 -1.00225426e-001
      6.87116459e-002 1.74139708e-001 9.25795082e-003 2.05677450e-001
      1.69880807e-001 -1.62913635e-001 -1.39116436e-001 7.96316862e-002
      -2.04285964e-001 7.18733370e-002 6.52321801e-002 -3.43332499e-001
      3.22719008e-001 6.19268455e-002 -4.57501486e-002 2.63320957e-003
      7.43907169e-002 -2.18461424e-001 -1.57538783e-002 1.36284241e-002
      -2.16639221e-001 1.71774566e-001 5.59214465e-002 8.20407793e-002
      6.81004375e-002 9.32259485e-002 -1.12466048e-002 -3.80419120e-002
      -8.05729404e-002 -7.38325045e-002 -8.45361277e-002 5.49868168e-003
      -3.41778584e-002 2.32263803e-001 -2.50407830e-002 -1.84601378e-002
      -5.08060083e-002 -1.58098806e-002 -5.40352501e-002
      -1.04668602e-001 7.35206828e-002 1.97969452e-001 1.26826670e-002
      2.55503774e-001 5.53645492e-002 -3.70288454e-002 -1.47400826e-001
      -6.18614629e-002 -2.13492781e-001 2.25786380e-002 -3.91782261e-002
      1.76619291e-001 -4.70578410e-002 1.80878211e-002 1.09840982e-001
      -6.36388659e-002 1.53834477e-001 -3.57193165e-002 -7.77725056e-002
      -1.24107212e-001 7.32094571e-002 -3.48553732e-002 -2.30412185e-002
      -1.11047782e-001 2.17647910e-001 2.35642105e-001 1.21571906e-001
      -1.46404907e-001 -6.32512122e-002 -1.96686953e-001 2.69038558e-001
      6.98657054e-003 6.48790896e-002 -6.86487481e-002 -7.44804591e-002
      -1.55313686e-002 1.61798596e-002 -1.06925312e-002 -1.82027161e-001
      9.15893018e-002 3.84735689e-002 -1.17537834e-001 -9.25139710e-002
      1.00993142e-001 1.44293621e-001 5.62086701e-002 -6.36201818e-003
      -2.16308758e-001 -5.29498048e-002 -1.42753512e-001 6.25504032e-002
      1.85744956e-001 -2.13581161e-003 2.62917608e-001 -1.48395464e-001
      -1.02684110e-001 -5.37905172e-002 -6.37538508e-002 1.49100736e-001
      5.42755099e-003 -1.86646894e-001 2.24681601e-001 3.01300995e-002
      -2.24099532e-002 4.95780781e-002 -1.90410763e-001 2.28969622e-002
      -1.87019512e-001 -4.35078368e-002 9.27812010e-002 1.47244394e-001
      2.49999613e-001 4.60017025e-002 -1.21709757e-001 -2.03197733e-001
      2.42042601e-001 6.04448095e-002 -3.94457839e-002 -7.15273470e-002
      -1.22590341e-001 1.06289774e-001 4.23212945e-002 -3.23414028e-001
      1.17241338e-001 1.58446044e-001 1.57532141e-001 -5.98443933e-002
      1.72195658e-002 -2.83642888e-001 1.76478699e-001 7.61965513e-002
      -1.89193964e-001 -4.16129082e-002 4.61679660e-002 1.51567146e-001
      -1.41847938e-001 1.41205013e-001 -5.33678085e-002 -7.32172057e-002
      -8.76651332e-002 5.14629856e-002 -2.27240361e-002 -9.47645605e-002
      -1.64515793e-001 -6.56102970e-002 1.37428001e-001 2.00536117e-001
      4.60992642e-002 -4.45009135e-002 6.94478005e-002 -7.28150234e-002
      1.96850553e-001 -3.18114460e-002 1.46114230e-001 -2.53558923e-002
      1.46184126e-002 -3.51322323e-001 -6.51684180e-002 1.98297668e-002
      1.06126301e-001 -1.90848261e-001 -7.99769983e-002 1.13455020e-002
      4.76410799e-002 2.29166463e-001 -6.43635020e-002 9.38590467e-002
      -8.63551274e-002 4.22985218e-002 1.03695309e-002 3.75153311e-002
      1.56986509e-002 -6.85955286e-002 6.96593300e-002 1.37851194e-001
      -7.71820173e-002 -2.50737537e-002 -8.05572942e-002
      -1.42180756e-001 -1.32261708e-001 7.72798136e-002 6.65415302e-002
      1.49356246e-001 7.73633495e-002 4.67590690e-002 -1.58220932e-001
      1.55169964e-002 5.32607362e-002 3.96402404e-002 -1.28337830e-001
      9.24291685e-002 7.66643882e-002 2.04617545e-001 -2.40320736e-003
      -1.26671001e-001 -2.10430786e-001 1.19796947e-001 1.42764166e-001
      -1.79396421e-002 1.50304884e-001 -3.55435878e-001 -1.48094833e-001
      -1.23929508e-001 2.71880478e-002 2.29785994e-001 1.56386271e-002
      -1.57115206e-001 -1.15634734e-002 2.08019301e-001 -2.59354655e-002
      6.17656931e-002 3.52167189e-002 -6.06841855e-002 -5.93146048e-002
      9.08635780e-002 3.81783396e-002 -4.16815467e-003 4.88574728e-002
      -1.50599629e-002 -1.39263704e-001 -1.48846461e-002 1.00569591e-001
      -9.97104347e-002 9.90254357e-002 5.77822216e-002 -8.90861005e-002
      -1.57214403e-001 -3.71572256e-001 -3.59406471e-002 7.71926269e-002
      1.72888696e-001 2.60702163e-001 3.10941666e-001 -5.47431633e-002
      -6.58668131e-002 -3.22130769e-002 -3.89445066e-001 1.44323170e-001
      2.42172688e-001 -3.71772721e-002 -9.76526588e-002 7.66530931e-002
      1.02279834e-001 -1.48562388e-002 1.05887786e-001 -1.29792288e-001
      -6.03567921e-002 -5.25513031e-002 4.98929098e-002 -6.14730939e-002
      2.44869053e-001 6.87161461e-003 -1.30823985e-001 1.40785631e-002
      -1.26117736e-001 -2.60692954e-001 7.35731646e-002 5.26540801e-002
      1.32952213e-001 4.81143631e-002 8.21072012e-002 7.72594884e-002
      -4.86826748e-002 -4.02385332e-002 -6.60033803e-003
      -1.54918522e-001 3.27501185e-002 2.14899071e-002 -1.46772638e-001
      9.18266103e-002 -2.27608047e-002 4.01127189e-002 7.20274672e-002
      -1.18449502e-001 3.11064851e-002 -1.28012965e-003 5.23605160e-002
      -3.09604146e-002 5.23911715e-002 1.00887395e-001 -4.31696922e-002
      6.37287050e-002 2.02456042e-001 -1.68003708e-001 -2.13786349e-001
      5.15014715e-002 9.92847234e-002 1.56465203e-001 2.27361210e-002
      5.28332964e-002 -4.31941729e-003 1.16690636e-001 -1.75223604e-001
      -1.22917697e-001 -1.40133172e-001 -4.29068357e-002 2.40680873e-001
      3.33097801e-002 -2.65719276e-002 -1.31058559e-001 -5.68830259e-002
      -6.64934814e-002 8.57924372e-002 -2.86077503e-002 4.03346755e-002
      -2.08844975e-001 -3.07089258e-002 -3.03491345e-003 1.27770677e-001
      3.35623510e-002 -1.72036439e-002 3.57546918e-002 3.16773169e-002
      -4.78931963e-002 1.12919427e-001 3.26866023e-002 1.00895390e-001
      -9.75653529e-003 1.01462431e-001 1.23489588e-001 -6.88432455e-002
      -3.47695500e-001 1.04324073e-001 5.73859885e-002 2.39450186e-002
      4.28977348e-002 -2.21023500e-001 3.00184339e-002 -9.32671055e-002
      5.96748330e-002 1.26228109e-002 2.75957197e-001 -2.39531719e-003
      1.77075177e-001 -1.94820017e-001 -4.62364286e-001 -1.61016226e-001
      4.81860153e-002 1.10015228e-001 2.26619244e-001 3.02939981e-001
      -5.09727299e-002 1.00244224e-001 -1.17927983e-001 -5.03249824e-001
      -2.22822428e-002 1.18070759e-001 1.04116246e-001 8.46690461e-002
      -8.06334466e-002 5.06977327e-002 9.20669138e-002 1.61428630e-001
      -1.83364674e-001 1.17458403e-001 -6.23554178e-002 -1.18576542e-001
      3.62779610e-002 -2.48996746e-002 1.02193929e-001 -4.44862014e-003
      9.71248671e-002 5.20436987e-002 -1.44202173e-001 -7.90695101e-002
      -3.86043079e-002 5.05924486e-002 4.59517725e-002 -1.33565515e-001
      5.49296178e-002 2.12978274e-001 -2.75081415e-002 -1.72116369e-001
      1.53389230e-001 -2.07443103e-001 8.26128125e-002 -3.00328374e-001
      -4.43126224e-002 2.62848467e-001 1.21817239e-001 1.30889207e-001
      3.95214744e-002 -2.18334869e-001 -9.78060439e-002 1.05489761e-001
      3.98180261e-002 3.22095752e-001 4.29822989e-002 -1.71292275e-001
      1.56618848e-001 -1.06968082e-001 -1.47823647e-001 -9.67724994e-002
      -2.89656632e-002 -1.16868159e-002 1.76912978e-001 -1.27673447e-002
      -8.17649737e-002 -5.14745116e-002 7.30716437e-002 -3.02022286e-002
      -6.80632219e-002 9.91681870e-003 2.44873047e-001 -1.39102608e-001
      -2.13386398e-002 4.83134277e-002 2.58219000e-002 2.50499472e-002
      -2.23950386e-001 -5.82014397e-002 1.08487099e-001 3.61874588e-002
      4.50564548e-002 -7.19077289e-002 1.26463264e-001 -3.48349512e-002
      3.50935683e-002 -7.67995492e-002 -5.70439175e-002 6.09615073e-003
      5.95772266e-002 -1.17368817e-001 -1.97440181e-002 6.94151968e-002
      2.94191595e-002 1.42752692e-001 -1.14078201e-001 -6.10062182e-002
      1.45934820e-002 6.74544722e-002 -3.46937706e-003 2.31266841e-002
      1.13676965e-001 -1.10911205e-001 1.50294527e-001 7.57775828e-003
      -2.33026192e-001 -9.21454001e-003 1.00940399e-001 -8.27660263e-002
      -3.44077423e-002 9.12819207e-002 -3.10953587e-001 3.44927758e-001
      1.05661280e-001 -1.28426358e-001 -8.81718919e-002 1.31961226e-001
      8.49192888e-002 -1.36630565e-001 -1.39293134e-001 -1.87052786e-001
      2.92875648e-001 1.06807975e-002 -1.28620014e-001 8.19349438e-002
      2.00101450e-001 1.21261477e-001 3.46229337e-002 -2.17861325e-001
      -1.17845878e-001 -1.80182561e-001 9.28437412e-002 2.24818173e-003
      8.72561410e-002 1.86223924e-001 2.21516863e-001 -7.20640272e-003
      -1.09827667e-001 -2.64033496e-001 2.07630321e-001 -4.83055860e-002
      -2.22515047e-001 5.25735393e-002 2.79866792e-002 8.43208209e-002
      -1.83557603e-003 3.22336219e-002 1.66698061e-002 -2.37262160e-001
      -9.15473700e-002 -5.64829959e-003 1.84598044e-001 -1.60964072e-001
      -1.07708424e-001 1.00121848e-001 3.16067450e-002 2.15166863e-002
      -1.09419219e-001 3.12380530e-002 4.67444770e-002 1.51009873e-001
      -4.97217923e-002 3.04425538e-001 -2.29100138e-002 1.09045781e-001
      5.43051250e-002 -9.28214490e-002 2.90440358e-002 -2.23588124e-001
      -1.02331966e-001 -3.15807201e-002 -3.05991415e-002 7.87722915e-002
      -1.78565104e-002 -4.44304344e-004 -1.79163124e-002 2.39757206e-002
      2.32866257e-002 -3.07107233e-002 3.90249230e-002 -4.09520306e-002
      -5.07510826e-002 6.48032781e-003 -3.22124436e-002 6.64011613e-002
      1.47499651e-001 -1.24147415e-001 4.54623863e-004 8.97639170e-002
      -3.76296699e-001 4.55886908e-002 2.51487315e-001 -1.60413936e-001
      1.25208586e-001 4.25621569e-002 -5.68364449e-002 4.82360460e-002
      5.40141985e-002 -9.82784554e-002 -1.01549625e-001 -4.05786075e-002
      -4.38076615e-001 1.13535188e-002 2.02795655e-001 2.21731544e-001
      1.93438455e-001 1.34455994e-001 -1.08461887e-001 2.24458743e-002
      -1.18781216e-001 -3.71146888e-001 9.61825550e-002 1.51002556e-001
      1.00247428e-001 9.75484028e-002 1.87702209e-001 -1.22377567e-001
      -7.62621462e-002 -3.15222502e-001 -1.68002620e-001
      -7.92113915e-002 3.00094783e-001 1.50577411e-001 1.25881061e-001
      -6.64897040e-002 1.09794527e-001 5.53751588e-002 -9.69756395e-002
      -1.43181309e-001 -1.19086556e-001 8.76625180e-002 6.88574687e-002
      1.13442212e-001 1.77019536e-002 -8.40581954e-002 4.97916713e-002
      8.86021182e-002 6.52652606e-002 -1.47155285e-001 -1.74061432e-001
      2.03163624e-002 1.76476330e-001 1.33057192e-001 1.53287113e-001
      -2.43024174e-002 -1.38030663e-001 -1.10198461e-001
      -3.27238515e-002 2.91062593e-002 -4.05999199e-002 4.39230800e-002
      2.09301963e-001 -2.58170757e-002 3.99471633e-003 1.58300456e-002
      4.49352432e-003 -1.02194838e-001 -7.96803012e-002 -1.07820474e-001
      9.49722379e-002 1.23587124e-001 4.82189544e-002 -1.79607403e-002
      3.87631245e-002 -3.45745236e-001 -2.07492799e-001 1.19830251e-001
      9.34979916e-002 1.59966350e-001 1.47111956e-002 -8.94734338e-002
      -2.86458060e-002 1.48277968e-001 2.65557002e-002 7.44159613e-003
      4.95358445e-002 -7.98366666e-002 -4.69381772e-002 8.63005519e-002
      -1.06519818e-001 -9.33984071e-002 -5.08652404e-002
      -1.04175992e-002 2.57105231e-001 1.47226863e-002 -1.73391208e-001
      8.38045180e-002 8.10099244e-002 -7.54557475e-002 -4.63988483e-002
      7.53975883e-002 -3.26799542e-001 1.23120300e-001 1.61844164e-001
      -1.37986103e-002 3.07012536e-002 1.07497446e-001 -3.12084466e-001
      1.46518841e-001 8.21239650e-002 -4.23665255e-001 1.81542143e-001
      3.06450665e-001 -1.28499717e-001 4.13656086e-002 5.91017082e-002
      -9.79343280e-002 6.87330067e-002 5.13083674e-002 -3.59676808e-001
      1.33269280e-002 2.25260571e-001 8.12338442e-002 -3.97394300e-002
      -1.48029849e-001 -2.13674214e-002 6.96737096e-002 -3.69525738e-002
      -3.29163104e-001 2.58114606e-001 1.13379575e-001 -1.74101070e-002
      1.08078510e-001 -1.60031348e-001 -3.27075757e-002 4.66461256e-002
      -1.86348781e-002 -9.61594135e-002 -8.79025534e-002 2.66811371e-001
      1.36540070e-001 -5.68687133e-002 2.29787063e-002 -2.06109300e-001
      -7.04878122e-002 3.35115343e-002 7.06701875e-002 3.40027928e-001
      -2.01699361e-002 -1.46247178e-001 -2.24959105e-002
      -5.19396514e-002 7.18362927e-002 3.96917351e-002 -2.70258009e-001
      -9.04086530e-002 1.25634164e-001 -1.64642513e-001 1.21112764e-001
      2.34274209e-001 -2.21209168e-001 5.17794862e-002 -5.07993810e-002
      4.59924415e-002 4.92224619e-002 1.17766835e-001 -8.88115093e-002
      3.94388922e-002 6.02974743e-002 1.98439330e-001 1.28303409e-001
      -9.30605754e-002 -5.01980297e-002 -1.77945331e-001 3.47348638e-002
      -1.17889337e-001 -1.02113739e-001 1.93901777e-001 1.87177420e-001
      1.47809118e-001 -3.97061557e-002 -1.78118482e-001 -1.88320115e-001
      -1.34444520e-001 1.57325774e-001 2.03631949e-002 4.62126844e-002
      3.68111670e-001 -1.55572519e-001 4.33042832e-002 9.43998247e-002
      -4.28673267e-001 1.81466505e-001 2.43151367e-001 -2.63876885e-001
      -7.66267478e-002 6.10701591e-002 -3.31378318e-002 1.04981981e-001
      5.99258058e-002 -2.15599924e-001 2.75995564e-002 1.49338812e-001
      -1.00059755e-001 -4.57740985e-002 2.45642051e-001 -9.78822932e-002
      -1.23440273e-001 8.70895833e-002 -1.80362076e-001 8.43037069e-002
      1.34395167e-001 -1.40152276e-001 -8.96039698e-003 3.85846868e-002
      -1.37249500e-001 -4.52146567e-002 1.48771986e-001 -1.01150446e-001
      3.33956957e-001 -8.11443403e-002 -6.00782707e-002 -9.41959247e-002
      1.21792853e-001 -6.20268425e-003 -1.60010993e-001 1.12461410e-001
      -1.93321556e-002 1.07081719e-001 -9.33750160e-003 -1.24007128e-001
      -2.40244269e-002 -1.50403492e-002 2.86138542e-002 -1.16140194e-001
      6.65461421e-002 2.28379652e-001 1.15966327e-001 -1.11097023e-001
      -1.77922383e-001 -1.98391918e-002 4.91745509e-002 -7.21975714e-002
      -2.94904187e-002 1.74437240e-001 2.83051163e-001 3.83998193e-002
      -1.82396695e-001 -1.53906658e-001 -1.05923735e-001 1.80807039e-001
      -1.00105055e-001 -1.65290430e-001 1.98465884e-001 1.98729172e-001
      1.78251952e-001 -1.42849639e-001 -2.70453423e-001 -7.93616250e-002
      6.08838238e-002 -2.28171125e-001 3.14212404e-002 2.01726854e-001
      2.20800236e-001 3.42897147e-001 -1.28293216e-001 -2.16363534e-001
      -2.91851223e-001 1.31648868e-001 -1.88861236e-001 4.86372085e-003
      1.02096973e-002 8.82326514e-002 2.93435276e-001 -6.25387654e-002
      -9.04656947e-002 -1.81040540e-001</_></support_vectors>
  <decision_functions>
    <_>
      <sv_count>1</sv_count>
      <rho>6.5463418475200696e-001</rho>
      <alpha>
        1.</alpha>
      <index>
        0</index></_></decision_functions></my_svm>
</opencv_storage>
