<?xml version="1.0"?>
<opencv_storage>
<my_svm type_id="opencv-ml-svm">
  <svm_type>C_SVC</svm_type>
  <kernel><type>LINEAR</type></kernel>
  <C>1.</C>
  <term_criteria><epsilon>2.2204460492503131e-016</epsilon>
    <iterations>100</iterations></term_criteria>
  <var_all>576</var_all>
  <var_count>576</var_count>
  <class_count>2</class_count>
  <class_labels type_id="opencv-matrix">
    <rows>1</rows>
    <cols>2</cols>
    <dt>i</dt>
    <data>
      -1 1</data></class_labels>
  <sv_total>1</sv_total>
  <support_vectors>
    <_>
      -8.43126103e-002 1.62133098e-001 -7.49022653e-003 -6.79021552e-002
      1.93264894e-002 -7.87178576e-002 -2.03014351e-002 2.77488288e-002
      5.48764952e-002 1.36046037e-001 1.22000463e-001 1.75457150e-001
      1.21029057e-001 1.34582013e-001 -2.73906946e-001 9.05987620e-003
      -9.16050524e-002 -3.25767994e-001 2.82833353e-002 1.27172366e-001
      1.54207677e-001 4.94573042e-002 -7.64876679e-002 4.98492047e-002
      -1.64767340e-001 1.79140076e-001 -3.43585908e-001 1.55549794e-001
      1.86084881e-001 -7.74938613e-002 1.28011331e-001 -1.23331659e-001
      1.53668765e-002 -1.67461038e-001 -1.87157363e-001 8.18070322e-002
      7.89026767e-002 -1.72430485e-001 6.52836561e-002 -3.99345234e-002
      2.26355374e-001 2.97717333e-001 1.02328613e-001 -4.29355711e-001
      -1.30597576e-001 2.01634705e-001 1.50874749e-001 -1.87450591e-002
      -2.41148174e-002 -3.35893296e-002 -1.30554080e-001
      -1.57903016e-001 1.29798338e-001 -1.26341432e-001 1.95082635e-001
      3.94363791e-001 -9.90091115e-002 -3.65084618e-001 5.52896634e-002
      1.96587488e-001 -2.56916672e-001 2.74394780e-001 -3.98427606e-001
      2.08662912e-001 1.00173868e-001 7.64982030e-002 7.78141385e-003
      2.19927933e-002 -4.84582156e-001 -5.58784567e-002 3.51445824e-001
      -2.17794552e-001 4.46856096e-002 1.11431554e-001 3.53153534e-002
      7.69729689e-002 -3.40238749e-003 -1.53527826e-001 3.65928095e-003
      -1.72678996e-002 -9.80336666e-002 3.79158109e-001 1.42066434e-001
      4.78755347e-002 -9.29791555e-002 -1.23205021e-001 -2.70266265e-001
      -1.48161761e-002 -2.44395480e-001 1.67981252e-001 4.15806890e-001
      3.59422415e-001 1.06445692e-001 2.96951830e-001 -3.50171268e-001
      -3.04621607e-001 -1.42030939e-001 -3.06897640e-001
      -8.55255947e-002 5.51605165e-001 1.82221070e-001 1.61462724e-001
      2.13006213e-001 -2.07877964e-001 -1.74861476e-001 -1.40810445e-001
      -5.18883348e-001 -6.31753653e-002 2.01803848e-001 9.30979028e-002
      9.33540687e-002 9.75498781e-002 -2.71292508e-001 1.55628935e-001
      2.05498114e-002 5.59595600e-002 -4.21417832e-001 2.91943610e-001
      2.14757711e-001 1.37052000e-001 -9.32644457e-002 -1.86509266e-001
      -1.40361842e-002 -1.67881966e-001 -7.66965002e-002
      -1.30745888e-001 2.04859063e-001 1.41461298e-001 4.28308286e-002
      1.27419438e-002 8.58916901e-003 7.79581023e-003 -1.87917143e-001
      -2.63172626e-001 4.11506854e-002 2.86182046e-001 -5.31358868e-002
      -4.16364893e-002 -2.22525135e-001 -1.72656551e-001 7.99923092e-002
      7.05557913e-002 -5.42441569e-002 9.66698453e-002 2.08290983e-002
      -1.91660315e-001 9.96763706e-002 1.89042985e-001 3.50846127e-002
      1.04516990e-001 -2.33079959e-003 -7.96525273e-003 -2.51431733e-001
      5.58396615e-002 3.28328833e-002 -9.14301630e-003 5.25241867e-002
      -1.41149595e-001 -1.04235955e-001 7.78171495e-002 2.37922996e-001
      -2.01187685e-001 6.86790943e-002 1.41980261e-001 1.05492910e-002
      2.76597857e-001 -4.67523634e-002 -1.89438030e-001 1.18168145e-002
      -1.09909941e-002 -2.57352084e-001 -9.03740376e-002 3.65228835e-003
      9.87087712e-002 1.47851957e-002 -2.23328527e-002 3.85832101e-001
      7.11455494e-002 1.67158291e-001 -6.09114170e-001 -1.37194976e-001
      -4.86941226e-002 6.95996359e-002 9.15742442e-002 -6.48494214e-002
      4.15667146e-001 1.51113883e-001 1.38010740e-001 -6.18193924e-001
      -1.46681711e-001 -2.98216403e-001 1.23429433e-001 -2.82956541e-001
      -4.04893547e-001 -7.78588131e-002 3.10233325e-001 3.56787801e-001
      3.97816092e-001 -1.98189810e-001 -1.81996346e-001 -9.47895870e-002
      4.62202765e-002 -6.24033548e-002 3.18994671e-001 8.84728623e-004
      -2.31679797e-001 3.96448016e-001 3.12074069e-002 4.03460115e-002
      2.61710808e-002 5.66623956e-002 9.50213745e-002 1.69883564e-001
      -1.27138579e-002 -2.23399803e-001 -1.86024144e-001
      -2.38264576e-001 -2.92944670e-001 1.25019141e-002 6.73483089e-002
      1.25119537e-001 2.24219605e-001 1.55468397e-002 -1.77899837e-001
      2.52295136e-001 -1.72692493e-001 -1.63490534e-001 -3.74614261e-002
      -2.19392270e-001 -1.56402573e-001 6.92335367e-001 6.73283041e-002
      -4.18793857e-001 3.85153860e-001 -9.85246501e-004 -1.97517127e-003
      -1.40405130e-002 -1.41570969e-002 -1.93870440e-002 3.27309936e-001
      6.64182827e-002 -1.16334245e-001 -2.30511054e-001 -4.88162600e-002
      -2.21490953e-002 -3.59759741e-002 3.95562015e-002 -8.05865694e-003
      -1.05015554e-001 2.13759795e-001 -3.68649438e-002 1.80795777e-003
      -1.58329550e-002 -6.02590777e-002 -3.00607942e-002
      -6.49776906e-002 -1.81363244e-002 5.60793161e-001 -1.02834947e-001
      -2.56389499e-001 -2.54991874e-002 -5.64662516e-002
      -8.86565596e-002 -4.37099636e-002 -2.21993521e-001
      -2.76663512e-001 3.05976361e-001 -4.09064516e-002 -3.14331383e-001
      7.17992544e-001 -1.24365557e-002 -1.31216183e-001 -5.24158105e-002
      -1.45475045e-001 -1.73179060e-001 9.60009918e-002 -6.77548125e-002
      9.26836208e-003 4.68512386e-001 -4.13843393e-002 -1.54048264e-001
      -4.39949939e-003 -7.96630755e-002 -2.42492650e-002 4.98952806e-001
      3.76454704e-002 -3.86377200e-002 -2.04470187e-001 8.39785561e-002
      -1.19959176e-001 3.06557640e-002 9.30732675e-003 1.83456428e-002
      2.53548175e-001 -5.54628596e-002 -2.24037588e-001 -1.65690035e-002
      -5.90166859e-002 -6.50002882e-002 -5.43263294e-002
      -9.56442133e-002 -1.45799875e-001 3.79684478e-001 6.28034174e-002
      -7.96970949e-002 4.46143150e-002 -5.09349862e-003 -2.88994685e-002
      -6.98275864e-003 -3.71692888e-002 -2.33056080e-002 1.80818766e-001
      1.40622817e-002 -8.03282037e-002 -1.94457509e-002 -7.56620616e-002
      -1.19864359e-001 -2.77641288e-009 -1.21455640e-002
      -2.06402540e-002 3.03362180e-002 1.75896183e-001 1.53842166e-001
      -1.32470012e-001 -5.78885600e-002 -8.78183320e-002
      -9.93107073e-003 -3.57308090e-002 -1.39903952e-003 4.58888382e-001
      -7.62293041e-002 -2.61057969e-002 -1.69718698e-001
      -5.02461679e-002 -9.75570604e-002 -1.66712515e-002
      -1.44099042e-001 -2.61582255e-001 2.37466156e-001 -1.52132228e-001
      -3.09922040e-001 7.78528690e-001 -9.33735073e-002 -1.08982287e-001
      -2.18725298e-002 -9.12596211e-002 -1.51066691e-001 4.17557478e-001
      -9.93248373e-002 -2.54962981e-001 3.89697134e-001 -9.45231244e-002
      -1.07894778e-001 -6.31723478e-002 -4.42583747e-002
      -2.41681635e-002 5.68392873e-001 5.20234779e-002 -1.49190977e-001
      -1.48173064e-001 5.33157475e-002 -2.55530700e-002 5.24910213e-003
      8.90770555e-002 4.75895870e-003 -6.25412315e-002 -1.22211976e-002
      -6.33939058e-002 9.50453710e-003 3.93787436e-002 -2.12603342e-002
      1.16623528e-002 -7.30823576e-002 6.35816008e-002 1.90836132e-001
      1.17284721e-002 6.43760562e-002 -2.87574232e-001 2.31711030e-001
      1.59707293e-001 -1.25335142e-001 -1.86713621e-001 1.41359076e-001
      3.00898552e-002 -6.09655529e-002 1.22833282e-001 -3.13594401e-001
      -8.81151259e-002 6.01990111e-002 5.39006554e-002 1.30480871e-001
      2.26589382e-001 -1.21322796e-001 -1.11964479e-001 -3.38238105e-002
      -1.23851858e-001 2.57680386e-001 -3.69594269e-003 -1.43214175e-002
      1.05963022e-001 1.15079135e-001 1.49457663e-001 -2.25349560e-001
      -2.61409372e-001 -1.03551939e-001 3.86466943e-002 -2.66970903e-001
      2.96734069e-002 -2.22056478e-001 -3.80567491e-001 3.86984706e-001
      6.41863793e-002 8.44804496e-002 2.57359713e-001 -6.77922592e-002
      6.48765638e-002 3.98409739e-002 -1.42058507e-001 -3.33344527e-002
      -5.50069846e-002 -1.34757916e-002 1.32213503e-001 6.95508718e-002
      5.06041646e-002 7.63257593e-002 7.48210549e-002 1.38753131e-001
      5.75166568e-002 -1.47479713e-001 1.52593210e-001 -2.00952500e-001
      -1.72500908e-001 1.39607057e-001 -9.36131999e-002 -2.45401878e-002
      4.70068119e-002 -3.86004150e-002 -1.27867922e-001 -9.54088196e-003
      -2.49951035e-002 1.31593570e-001 5.65618351e-002 1.93855986e-002
      -8.22787434e-002 -1.87405944e-002 -2.28340343e-001
      -3.56274135e-002 1.70869078e-003 -6.12193644e-002 3.41659635e-001
      5.33955395e-001 3.55644494e-001 -5.94012719e-003 3.15729193e-002
      -4.17788416e-001 -5.40302873e-001 -9.78858024e-002
      -3.17318857e-001 4.39674199e-001 7.25318789e-001 2.46593460e-001
      1.42394423e-001 -7.35533834e-002 -3.67754638e-001 -4.18881327e-001
      -3.96982223e-001 -4.78524297e-001 6.08254552e-001 3.77152473e-001
      1.58067480e-001 1.96854487e-001 1.21650085e-001 -3.92016441e-001
      -5.42645119e-002 -7.88977444e-002 -6.37715682e-002
      -2.65450597e-001 6.69242367e-002 7.15813658e-005 2.01690793e-001
      3.46549638e-002 9.67119336e-002 -1.31345764e-001 -1.88398778e-001
      -2.27872670e-001 1.52062058e-001 2.69024074e-001 1.91469178e-001
      -9.94783454e-003 -9.88340154e-002 -1.40935585e-001 6.80906624e-002
      -1.46863520e-001 -4.22156811e-001 2.59426832e-001 3.72147530e-001
      1.84792057e-001 9.50089768e-002 -1.10289671e-001 2.16742512e-002
      -1.43786177e-001 -7.08262101e-002 -1.32287547e-001
      -2.31163904e-001 1.38801545e-001 -8.86858776e-002 -5.48873097e-002
      -3.40290591e-002 -7.97748659e-003 -8.21196884e-002 1.37041109e-002
      -4.10362631e-002 1.52854711e-001 4.38218445e-001 1.57151565e-001
      -8.50345939e-002 -1.15513325e-001 6.43983334e-002 -2.39556730e-001
      7.72785842e-002 -6.50178120e-002 -2.35100552e-001 2.15987280e-001
      -2.92304326e-002 1.15982480e-001 5.52473105e-002 -1.07220933e-002
      -2.46524304e-001 6.31307587e-002 4.52583395e-002 -2.23338708e-001
      1.17815286e-001 -1.58216253e-001 5.14677241e-002 -7.97670484e-002
      2.88278772e-003 2.74408430e-001 -1.52278781e-001 -3.02210957e-001
      2.21987575e-001 1.27115533e-001 -4.91186865e-002 2.29984988e-002
      -8.46086740e-002 -3.64911556e-002 2.46337503e-001 -9.29658636e-002
      -1.93042353e-001 2.22008340e-002 2.25584522e-001 1.42163141e-002
      -2.90520526e-002 8.80233347e-002 6.05434664e-002 1.90973237e-001
      -8.21960941e-002 -6.09465659e-001 9.69928950e-002 2.79769987e-001
      5.86768202e-002 -3.31876837e-002 -2.58381218e-002 9.54636559e-002
      1.27806947e-001 -2.35439241e-001 -3.97740871e-001 9.54847485e-002
      2.41894603e-001 -3.09487954e-002 -3.14655527e-003 3.50702047e-001
      1.49645388e-001 3.92149299e-001 -4.49571498e-002 -3.27625096e-001
      -7.41689384e-001</_></support_vectors>
  <decision_functions>
    <_>
      <sv_count>1</sv_count>
      <rho>7.1060180455004662e-001</rho>
      <alpha>
        1.</alpha>
      <index>
        0</index></_></decision_functions></my_svm>
</opencv_storage>
